L,C,use_l1_penalty,use_proximal_soft_thresholding,w
1e6,10,True,True,"[0.0, 0.0, 0.0, 0.0, 0.0, 0.0, 0.0, 0.0, 0.0, 0.0, 0.0, 0.0, 0.0, 0.0, 0.0, 0.0, 0.0, 0.0, 0.0, 0.0, 0.0, 0.0, 0.0, 0.0, 0.0, 0.0, 0.0, 0.0, 0.0, 0.0, 0.0, 0.0, 0.0, 0.0, 0.0, 0.0, 0.0, 0.0, 0.0, 0.0, 0.0, 0.0, 0.0, 0.0, 0.0, 0.0, 0.0, 0.0, 0.0, 0.0, 0.0, 0.0, 0.0, 0.0, 0.0, 0.0, 0.0, 0.0, 0.0, 0.0, 0.0, 0.0, 0.0, 0.0, 0.0, 0.0, 0.0, 0.0, 0.0, 0.0, 0.0, 0.0, 0.0, -2.127139797636346e-09, -1.3569254164735867e-08, -3.308794660483727e-08, -2.0604826289627454e-08, -9.664613997983906e-09, -7.167536342223002e-09, 0.0, 0.0, 0.0, 0.0, 0.0, 0.0, 0.0, 0.0, -2.832386769568984e-09, -4.106960815875027e-08, 0.0, 0.0, 0.0, 0.0, 0.0, -4.0344275142878416e-10, 0.0, -4.0344275142878416e-10, -2.6955311316356756e-09, -6.867501411988997e-08, -2.4578272928010847e-07, -5.220197749622457e-07, -7.917824973446841e-07, -9.322611731477082e-07, -7.617385335834115e-07, -6.547366524500831e-07, -2.8552054232022783e-07, -3.034994833228666e-08, -2.7653324075060937e-09, 0.0, 0.0, 0.0, 0.0, 0.0, 0.0, 0.0, -4.956677290834932e-09, 0.0, 0.0, -2.6570782032941942e-11, -5.928564750234955e-09, -2.7512088607295482e-08, -8.498163595049846e-08, -1.3584137548150466e-07, -2.007384267699308e-07, -1.9264064121671254e-07, -3.1562282742925163e-07, -4.0513401700081886e-07, -8.429677222920873e-07, -1.1656130709525314e-06, -1.4911362313796417e-06, -1.5311621837099665e-06, -1.3370841998039396e-06, -1.0920040267592412e-06, -8.359389198631106e-07, -4.341318629030866e-07, -1.919908356740052e-07, -1.053935747563628e-07, -1.4783016588637565e-08, 0.0, 0.0, 0.0, 0.0, 0.0, -3.894531985793037e-08, 0.0, -1.2583778463692852e-08, -8.156472119935643e-08, -2.2164988422446186e-07, -2.902160929352249e-07, -4.3038019725827326e-07, -5.293519507176825e-07, -4.5624079803019413e-07, -3.334291989176563e-07, -0.00011425601405790076, -0.00028607543208636343, -0.0004005650116596371, -0.0005572958034463227, -0.0006692031747661531, -0.0006740467506460845, -0.0005850748275406659, -0.0004906697431579232, -0.00033674450241960585, -0.00013539631618186831, -7.258103096319246e-07, -3.715121579261904e-07, -1.1218698148240946e-07, -4.798378938630776e-08, 0.0, 0.0, 0.0, 0.0, 0.0, 0.0, -6.445466738114192e-08, -2.788939070796914e-07, -4.87835677631665e-07, -6.476711860159412e-07, -4.950829315930605e-05, -0.00014234715490601957, -0.00015762356633786112, -7.511990406783298e-05, -3.136305508633086e-07, 2.3994834918994457e-07, -4.9780609856497904e-08, -3.9939777707331814e-07, -8.344356388079177e-07, -0.0001796946453396231, -0.00046428682981058955, -0.0006501796888187528, -0.0007158754160627723, -0.0006290553137660027, -0.00034688954474404454, -2.337197429369553e-06, -2.659155597939389e-07, -7.258759637807088e-08, -2.8847571553747287e-10, 0.0, 0.0, 0.0, 0.0, 0.0, -1.2615318212283455e-07, -4.3565117380239826e-07, -7.724694910393737e-07, -1.057806684912066e-06, -1.178854972749832e-06, -1.3903529634262668e-06, -1.2621724181371974e-06, 7.95422010924085e-07, 1.002887529466534e-06, 0.00017599215789232403, 0.00048462842823937535, 0.00037556973984465003, 5.457981160361669e-07, 5.516664032256813e-07, 7.68316610333386e-08, -0.0002891893091145903, -0.0005912796477787197, -0.0007442826172336936, -0.000689361710101366, -0.00033593777334317565, -3.9079881730685884e-07, -1.2629826073862205e-07, -1.920640979591326e-09, 0.0, 0.0, 1.95441607342417e-10, 3.90883214684834e-10, -2.02598116061381e-09, -1.4060640296520432e-07, -4.1343142243022157e-07, -3.4714651064859936e-07, -1.2610178146132967e-07, 1.6288015558529878e-07, 7.311516583285993e-07, 4.943472049490083e-07, 8.368801331926079e-07, 2.1547117285081185e-05, 0.0001450224663130939, 0.00023153920483309776, 0.00026188493939116597, 0.00012468283239286393, 1.0791859494929668e-06, 8.820675816423318e-07, -6.459133317093801e-08, -0.00029866909608244896, -0.0006600292399525642, -0.0007794656557962298, -0.000513177365064621, -6.251191848605231e-07, -2.5142384174614563e-07, -1.0552138052233317e-09, 0.0, 0.0, 6.254131434957344e-09, 1.2016451833574138e-08, -1.6289591897589162e-08, -4.837173861460542e-08, 1.1684909395626164e-07, 4.736119763038005e-07, 7.559898449471802e-07, 1.1720543398041627e-06, 9.561504157318268e-07, 4.370703550193866e-07, 6.068843845241645e-07, 5.455904670270684e-07, 1.482373477301735e-07, -1.447052966341289e-07, 3.671694344120624e-07, 0.0001739137078402564, 0.00010135310731129721, 1.0492582305232645e-06, 5.435778689388826e-07, -7.799002332831151e-08, -0.00037998356856405735, -0.0006126297521404922, -0.00048155104741454124, -7.124436933736433e-07, -1.5564542366064416e-07, 0.0, 0.0, 0.0, 0.0, 0.0, 6.955834663813221e-08, 3.9411813190781686e-07, 3.9253157524399285e-07, 5.720758622373978e-07, 1.5999871720850933e-06, 1.4686157783216913e-06, 7.495124805245723e-07, -3.434623181419738e-07, -5.293711001286283e-05, -0.00045102316653355956, -0.00034665854764170945, -1.0306609965482494e-06, 2.3433103990555537e-07, 0.0005792552256025374, 0.0006089857779443264, 0.00041551131289452314, 1.2282994248380419e-06, 7.581054433103418e-07, 2.456329184497008e-07, -9.82330966508016e-05, -9.904522448778152e-05, -4.6004385012565763e-07, -8.452728295083034e-09, 0.0, 0.0, 0.0, 0.0, 0.0, 2.3357657141787058e-07, 5.952584274382389e-07, 4.50119415518202e-07, 6.785001573916816e-07, 1.6361649386453792e-06, 1.2828909348172601e-06, -4.898473093817302e-07, -0.00034743701689876616, -0.0009750695317052305, -0.0011273392010480165, -0.0005044036079198122, -1.097406993721961e-06, 0.0005487626185640693, 0.001267388928681612, 0.0013188746524974704, 0.0011596299009397626, 0.0007755360566079617, 0.00014899586676619947, 8.067167982517276e-07, -3.900783553945075e-07, -6.497419349216216e-07, -4.0641236864757957e-07, 1.119203507649047e-09, 0.0, 0.0, 0.0, 0.0, 5.601848429570566e-10, 2.6163525035372004e-07, 6.910245247127023e-07, 6.028000143487589e-07, 6.351346542032843e-07, 1.1042623100365745e-06, -3.674805384434876e-07, -0.00028382617165334523, -0.0010061434004455805, -0.0013970955042168498, -0.0010332667734473944, -6.665725959464908e-05, -9.447833804188122e-08, 0.0011045801220461726, 0.0016453476855531335, 0.0015601778868585825, 0.0013305903412401676, 0.000893276825081557, 0.00033679764601401985, 1.1384673825887148e-06, 1.6352271359210135e-07, -8.609317347918477e-08, -7.028913273643411e-08, 0.0, 0.0, 0.0, 0.0, 0.0, 3.6854264084951183e-10, 1.4593740615964634e-07, 6.950811552997038e-07, 6.044838301022537e-07, 3.288018319835828e-07, -3.832502670775284e-08, -2.7407357265474275e-05, -0.0005924375145696104, -0.0010277992114424706, -0.0010150548769161105, -0.00043152342550456524, 1.9649658611342602e-07, 0.00026001984952017665, 0.001334869535639882, 0.0015618245815858245, 0.0011486482108011842, 0.0007734824903309345, 0.00039542789454571903, 4.3640837247949094e-05, 7.684159299969906e-07, 1.7794258155845455e-07, -3.55865132917188e-08, -1.707027630359903e-09, 0.0, 0.0, 0.0, 0.0, 0.0, 1.909261193588918e-08, 2.4168912204913795e-07, 6.624629236284818e-07, 3.0755776947444247e-07, 7.747664909629748e-08, -5.793855848423846e-07, -8.238845475716516e-05, -0.00035651904181577265, -0.0004303506575524807, -0.00017890898743644357, 4.154435941927659e-07, 6.011781010784034e-07, 0.0003972635022364557, 0.001285725156776607, 0.0011857792269438505, 0.00044924960820935667, 5.409567620517919e-06, 1.4226097846403718e-06, 8.513148941347026e-07, 2.599877291231678e-07, -5.545360171055336e-09, -8.527606354391537e-08, -2.120434139385452e-08, 0.0, 0.0, 0.0, 0.0, 0.0, 3.9626173453655156e-09, 8.816968488645216e-08, 4.530694752702402e-07, 3.480731436411588e-07, 1.11479749875798e-07, -7.663425094506238e-08, -1.0443156952533172e-06, -8.247036475950154e-07, 4.794056280843506e-07, 9.028938734445546e-07, 1.138402012657025e-06, 1.0610719982651062e-06, 0.0006414082017727196, 0.0011483014095574617, 0.0007071011350490153, 7.04300404663627e-08, 3.532692289809347e-07, 6.362673730109236e-07, 1.5755112769966217e-07, 6.051406131746262e-08, -7.891637210377667e-08, -9.502829811935953e-08, -6.669622365507166e-08, 0.0, 0.0, 0.0, 0.0, 0.0, 0.0, 5.654436918689498e-08, 1.5005146281055204e-07, -6.927893991814926e-08, -2.410742467873206e-07, -1.3880271154675938e-08, 2.8027267262586975e-07, 6.255702373891836e-07, 7.463328870471742e-07, 7.970462547746138e-07, 4.0985551663652586e-07, 0.00021741523232776672, 0.0007897288305684924, 0.0008816432091407478, 0.00017270042735617608, -1.8909511823039793e-07, -3.00768220995451e-07, -6.593505190721771e-07, -5.422306230684626e-07, -2.4903900452954986e-07, -3.539445003752917e-07, -1.4832932038189028e-07, -6.250876083413459e-08, 0.0, 0.0, 0.0, 0.0, 0.0, 0.0, 2.5857250562921763e-08, -9.20994907005479e-08, -1.0423715366414399e-06, -1.1976528639934259e-06, -9.441528163733892e-07, -3.236518182347936e-07, 2.597249419977743e-07, 5.229777571003069e-07, 6.023355467732472e-07, 8.326309762196615e-05, 0.00047148208250291646, 0.0007930217543616891, 0.00039603415643796325, 2.9425441994135326e-07, -6.869757953609223e-07, -0.00017744145588949323, -0.00017530999321024865, -0.0001156107900897041, -6.334617523862107e-07, -5.139862651049043e-07, -2.2411025213386893e-07, -1.0242166226248628e-08, 0.0, 0.0, 0.0, 0.0, 0.0, -6.011482422962899e-10, -1.172276569150199e-07, -4.2641588038350164e-07, -0.0002499849651940167, -0.0002760878123808652, -9.084065823117271e-05, -1.3375441767493612e-06, -4.828943929169327e-07, -2.501317339920206e-07, -5.329094676653767e-08, 5.982997777209675e-07, 0.0004098476783838123, 0.00038248696364462376, 5.277335048958776e-07, -1.5364504690751346e-07, -8.646896458230913e-05, -0.00023101898841559887, -0.00027408491587266326, -0.00021755693887826055, -2.4993236365844496e-05, -4.7070685127437173e-07, -2.87829266198969e-07, -4.172734158203184e-09, 0.0, 0.0, 0.0, 0.0, 0.0, -5.040396544586656e-09, -2.840760657818464e-07, -7.216630706352589e-07, -0.00040924391942098737, -0.000658412289340049, -0.0006503642071038485, -0.0005591136286966503, -0.00034131985739804804, -8.794216910246178e-07, -6.602098778785148e-07, 2.439767285977723e-07, 5.382238305173814e-05, 2.773143421563873e-07, 5.8310654083015834e-08, -7.322369697249087e-07, -0.00015849074407014996, -0.00022025563521310687, -0.0003009442880284041, -0.00027519790455698967, -3.428746640565805e-05, -6.481857326434692e-07, -2.382970478720381e-07, -7.1708465831932244e-09, 0.0, 0.0, 0.0, 0.0, 3.3237708141342637e-09, -1.7035333144121978e-08, -2.6160381594309e-07, -7.765323744024499e-07, -0.0004025980015285313, -0.0007991877500899136, -0.001018582028336823, -0.001078475033864379, -0.0008858219953253865, -0.000535543542355299, -1.641766743887274e-06, -4.654871759157686e-07, 1.3436071810701833e-07, -2.0740253603435121e-07, -6.112086907705816e-07, -0.00015964254271239042, -0.0002659163437783718, -0.00028117914916947484, -0.00030661167693324387, -0.00018406858725938946, -6.979593081268831e-07, -4.804794571100501e-07, -1.0058315069727541e-07, -6.79150735649614e-09, 0.0, 0.0, 0.0, 0.0, 2.862136083692235e-09, -3.783951640912164e-08, -1.833522418337452e-07, -5.880773414901341e-07, -0.00019472891290206462, -0.0006579109467566013, -0.0009045365732163191, -0.0010108072310686111, -0.0008458849042654037, -0.0005616170237772167, -0.00014329202531371266, -5.643503300234443e-07, -4.650097764624661e-07, -8.446425636066124e-05, -0.00026038719806820154, -0.00036165249184705317, -0.0002987589396070689, -0.00024409986508544534, -0.00016588566359132528, -1.2063136637152638e-05, -3.749713641809649e-07, -3.158686467941152e-07, -3.746067633869643e-08, -8.916104660139368e-11, 0.0, 0.0, 0.0, 0.0, 0.0, -1.691152462512946e-08, -7.351317066195406e-08, -2.6043619527627015e-07, -6.718150302731374e-07, -0.00030185701325535774, -0.0005719754844903946, -0.0007259705453179777, -0.000697194307576865, -0.0005832637543790042, -0.0004322288150433451, -0.0003679623769130558, -0.00037593767046928406, -0.0005074961809441447, -0.0004489262355491519, -0.00028038679738529027, -0.00012388206960167736, -7.536950192843506e-07, -2.6087712967637344e-07, -2.49280304842614e-07, -1.2106870883599186e-07, -1.3703709100809647e-07, 2.5009621040794627e-09, -7.005510616053812e-10, 0.0, 0.0, 0.0, 0.0, 0.0, -1.6806714908668141e-09, 2.2860151271952844e-10, 4.4157275169709465e-08, -4.694577171449055e-08, -6.305771194092813e-07, -3.79999000870157e-05, -0.0002542702713981271, -0.0003584242076613009, -0.0004286700568627566, -0.0004675797244999558, -0.00042001926340162754, -0.00039626582292839885, -0.00026081976830028, -3.3514192182337865e-05, -6.229543600966281e-07, -6.470366287203433e-08, 1.8225482278921845e-07, -2.069866278375798e-09, 6.10197190553663e-08, 3.4228150980197825e-08, 5.1463131534035256e-09, 4.610746895394868e-09, 0.0, 0.0, 0.0, 0.0, 0.0, 0.0, 0.0, 3.391254566054158e-08, 2.443491666781483e-07, 4.72740879331468e-07, 2.499485844964511e-07, 8.703065645931929e-08, -2.1383672788033437e-07, -3.836830728687346e-07, -5.320127893782001e-09, 1.249892989108048e-07, 2.5331246433779597e-07, 2.8794036666113243e-07, 1.9735477962967707e-07, 4.45701743956306e-07, 3.569209354736813e-07, 6.130312044660968e-07, 6.778587930966751e-07, 3.873759339967364e-07, 1.96502924154629e-07, 1.1414233114237504e-07, 6.073577196730184e-09, 1.4100816070339306e-09, 0.0, 0.0, 0.0, 0.0, 0.0, 0.0, 0.0, 3.532914405468546e-08, 1.3490011951944325e-07, 1.5422303079049016e-07, 5.2061423616578395e-08, 2.160209362500609e-07, 2.406576129487803e-07, 3.063107953948929e-07, 4.319283846143662e-07, 6.201133260219649e-07, 4.2760709106914874e-07, 7.964282531247591e-07, 6.853160812170245e-07, 4.0770089526631637e-07, 3.6274815329306875e-07, 6.402065082511399e-07, 6.212883931766555e-07, 3.1227119734467124e-07, 6.619197279178479e-08, -2.6132465080763723e-09, -9.486680774273282e-09, 0.0, 0.0, 0.0, 0.0, 0.0, 0.0, 0.0, 0.0, 0.0, 8.723840538849004e-10, 5.553498994004258e-09, 1.4555139316030363e-08, 8.917811555875232e-08, 1.7552403619447432e-07, 1.6675869574100943e-07, 3.1613521400686295e-07, 3.767314069591521e-07, 3.110081649992935e-07, 3.7012495113231125e-07, 3.7693132526328554e-07, 2.692990790365002e-07, 9.940185918821953e-08, 3.8319302575473557e-07, 4.574757497266546e-07, 1.2153510908774479e-07, 2.9770768072978626e-09, 2.456951309071087e-10, 0.0, 0.0, 0.0, 0.0, 0.0, 0.0, 0.0, 0.0, 0.0, 0.0, 0.0, 0.0, 0.0, 2.8431099141634775e-10, 3.855967545263184e-09, -3.3102946161989166e-08, -8.028641218515986e-08, -8.028641218515986e-08, -2.4857783387233212e-08, 5.745308673255067e-09, 2.7583293982225143e-10, 0.0, 0.0, 2.8098559923250832e-08, 4.3768913826625067e-08, 9.726424998746097e-09, 0.0, 0.0, 0.0, 0.0, 0.0, 0.0, 0.0]"
1e6,10,True,False,"[-7.061615292514034e-09, -2.7721334561192634e-08, 5.370289102302195e-08, -9.737046724467291e-08, 3.8937962187901576e-08, 4.621291793682758e-08, -3.847169693926844e-08, -3.034050166661473e-08, -3.8136199975724594e-08, -1.576496799771121e-08, 8.635603165885186e-08, 5.809942393852907e-08, 7.71444916836117e-08, -8.0644149136333e-08, -3.911480916940491e-09, 7.599083318154953e-08, -3.5016533672660444e-08, -4.9096477994226007e-08, 6.31027461395206e-08, 6.365517180029201e-08, 6.880193126335143e-08, 9.886354490618032e-08, 4.8910656857970025e-08, 2.2047025538540765e-08, 4.4886768080232287e-08, 4.5917815327811695e-08, -7.642270105634452e-08, 5.6526417324676004e-08, -1.2571902630043041e-08, 6.195224244720521e-08, -1.5790092788847687e-08, 6.740235392044269e-08, 6.172552957650623e-08, -1.2629804757580132e-08, 5.166057803762669e-08, 2.4522435637663875e-08, 5.270261738132831e-08, -1.3221708172750368e-08, 8.831994335878335e-08, 3.6733496244778507e-09, 4.790592100789581e-08, 3.123683711692138e-08, 3.457095942849264e-08, 2.9652426292159362e-08, -6.738169133768679e-08, -9.908927012247659e-08, -3.393147096630855e-08, -2.8880506874884304e-08, 3.89702350389598e-08, 2.5789056223857187e-08, 4.12573655239612e-08, 5.268159242177717e-08, 6.120259854469623e-09, 9.013601243168523e-08, 8.55276525157933e-08, 8.241570981226687e-09, 3.404441883958498e-08, -3.7398464769466955e-08, -4.9086352760241425e-08, 2.0844673542796954e-08, -6.137243246939761e-08, -2.8126891038482427e-08, 4.980702072998611e-08, -5.062189245563786e-08, 8.468486356605354e-08, -3.361000011636861e-08, -7.263430745751975e-08, 8.733271528171827e-08, -1.1554064371921413e-08, -5.508609035587142e-08, 9.516379861906898e-08, 3.755722843834519e-09, 9.002398115853794e-08, -5.101425415432459e-08, -9.02905483712857e-08, 7.33376026573751e-08, -4.590464897091806e-08, 8.850311417063494e-08, 5.600362840141315e-08, 8.942566154246379e-08, 3.7532842611653905e-08, -1.6059388485700765e-08, -9.123350253048557e-08, -2.2098838314832392e-08, 5.0264951312328776e-08, 8.333994827580682e-08, -8.520486716179221e-08, 2.686321209921516e-08, 3.489967070890998e-08, -3.62862806468911e-09, 9.917684451465902e-09, -9.283084523303842e-09, -5.5352877836867265e-08, -2.2098234353506996e-09, 8.700460085719897e-08, -4.9873399632360815e-08, 1.6858848539413884e-08, 6.753035819428987e-08, -9.337847473034344e-08, -3.537937664077617e-05, -4.7482113586738706e-05, -5.622299067908898e-05, -7.391863618977368e-05, -6.37890407233499e-05, -3.898368959198706e-05, -2.4232579676208843e-07, 6.560304655067739e-08, 4.935803588068666e-08, -7.614112007559015e-08, 8.999761291761388e-08, -1.8499548559702816e-09, -9.147066037940021e-08, -5.783632417433182e-08, 5.822524684617747e-08, 7.734168150363985e-08, 4.918057783243057e-08, -4.2897070784420066e-08, -6.566251187223315e-08, 9.033074377384764e-08, -2.0976095527203142e-08, 2.147199751334483e-08, 2.8217026937227274e-08, -2.0290886823204346e-05, -3.557546006049961e-05, -3.7832825910300016e-05, -7.007495878497139e-05, -0.0001527036220068112, -0.00026859407080337405, -0.00033094294485636055, -0.00033984988112933934, -0.0003276363422628492, -0.0002753726439550519, -0.00021318702783901244, -0.00017678759468253702, -9.55154318944551e-05, -3.646982440841384e-05, -5.436992722707146e-08, -7.768001353269938e-08, 2.675155741371782e-08, 9.552714175242727e-08, -1.3346507898859272e-08, -6.278455089159252e-09, 5.516843515351866e-08, -4.1389235150290915e-08, 1.5241681694533327e-08, 7.704472437808363e-08, -1.2050426789755875e-07, -2.585269794508349e-05, -8.802493539405987e-05, -0.00015204442024696618, -0.0001834808208514005, -0.000122598183224909, -9.940122254192829e-05, -0.00016772968228906393, -0.0003083921910729259, -0.00039290726999752223, -0.0005461724358610809, -0.0006828248151578009, -0.0007454195874743164, -0.000734023516997695, -0.0007078024209477007, -0.0006169591215439141, -0.0004857413878198713, -0.00030542456079274416, -0.00014713047130499035, -9.223339475283865e-06, -4.8337213343074836e-08, -4.982310031209636e-08, -9.856599803015342e-08, -5.187234819459263e-08, 7.049759886967877e-08, -4.170205869513666e-08, -1.874416000191559e-08, -9.989818039457532e-08, -5.3340609156293795e-05, -0.0001386191142955795, -0.00022864073980599642, -0.00024728692369535565, -0.0002228094235761091, -0.00018336722860112786, -0.0001248579064849764, -4.328062277636491e-05, 9.16879071155563e-06, 9.379073162563145e-05, 8.372773299925029e-05, -7.07325161783956e-05, -0.000363506143912673, -0.00059562420938164, -0.0007811473333276808, -0.0008753270958550274, -0.0008462352561764419, -0.0006494626868516207, -0.0004136319039389491, -0.0001590688043506816, -8.909800186529537e-08, 3.381614988029469e-10, 6.439593391860399e-08, 8.956134678328453e-08, -7.427686909977638e-09, 7.35181586719591e-08, -6.933701257594294e-08, -1.5130621250136755e-05, -9.086242789635435e-05, -0.0001920320646604523, -0.00020542445417959243, -0.0001804485364118591, -0.00014912347251083702, -9.575110743753612e-05, -4.6142019982653437e-07, 0.000205563977942802, 0.0004549461882561445, 0.0006944092456251383, 0.0006314131896942854, 0.0003004471363965422, 3.364405358752265e-07, -0.00026388021069578826, -0.0005422737449407578, -0.00079800357343629, -0.0009486512863077223, -0.0009298783843405545, -0.0006712725153192878, -0.00032133175409398973, -2.9042375899734907e-05, 8.59630233662756e-09, 3.679488003172082e-08, -1.7407288055437675e-08, -5.4845280317294964e-08, 6.935704988109137e-08, 6.994438450647067e-08, -1.0755936585837844e-07, -2.8366381229716353e-05, -4.6341479901457205e-05, -3.943591764254961e-08, -2.8525562356662704e-07, -7.412900799863564e-07, -3.485152774374001e-05, -8.76091780810384e-06, 0.00022335015819408, 0.0003712015168275684, 0.0004550982266664505, 0.00043740798719227314, 0.00033515869290567935, 0.00017851570737548172, 2.6982129384123255e-06, -0.0002935228403657675, -0.0006161988130770624, -0.0009196046157740057, -0.0010232528438791633, -0.000830134900752455, -0.0004064787644892931, -5.513388168765232e-05, -6.189111445564777e-08, 3.120256764077567e-08, 2.1039568309788592e-08, -4.680853749050584e-08, -3.005069970640761e-08, 8.603976908716504e-08, -1.1193776572326897e-08, 2.446386702104064e-07, 4.706491745309904e-05, 4.991006062482484e-05, 8.190448716050014e-05, 7.506137626478449e-05, -9.549309652356897e-06, -2.5068035029107705e-05, -7.578425720566884e-05, -3.122736234217882e-05, 8.563855226384476e-05, 0.00026501461979933083, 0.00038566908915527165, 0.00033824218553490937, 0.00014587174518965185, 9.91534534477978e-07, -0.0003735585487447679, -0.0007250991184264421, -0.0009163169306702912, -0.0008254892891272902, -0.00041233786032535136, -4.4110573071520776e-05, -3.276763038684294e-08, -2.4813076038299187e-08, 3.223733813229046e-08, 7.726960404852434e-08, 2.2812130850979884e-08, 1.0543482886760103e-07, 6.877111445646733e-05, 0.00010237412061542273, 0.000171782448887825, 0.00021612447744701058, 0.00013764575123786926, 9.108555968850851e-05, -5.400973532232456e-05, -0.000418353418353945, -0.0007050293497741222, -0.0005969489575363696, -0.000147785889566876, 0.00037691061152145267, 0.0007624682621099055, 0.0007697483524680138, 0.0006430175271816552, 0.00036195627762936056, 7.801568244758528e-07, -0.00028641425888054073, -0.0005516233504749835, -0.000553466728888452, -0.0002889447205234319, -1.6712421711417846e-05, -4.9235723054152913e-08, -6.379357841979072e-08, 5.0926715289278945e-08, 9.863281036359695e-08, -6.502572347244495e-08, 3.09496172121726e-05, 0.0001671798381721601, 0.00017242664762306958, 0.00023567999596707523, 0.00023684620100539178, 0.00010925795504590496, -1.3211022633186076e-05, -0.0005478478851728141, -0.0010615111095830798, -0.0011940888362005353, -0.0007092776359058917, 1.7290607502218336e-05, 0.0008887916337698698, 0.0013942195801064372, 0.0014124915469437838, 0.0012680692598223686, 0.0010011882986873388, 0.0005261646001599729, 6.916910206200555e-05, -0.000169330247445032, -0.00023619865532964468, -0.00011413057654863223, 9.071901985180375e-08, 5.5086786687752465e-08, -2.0251540888693853e-08, -9.040584103559013e-08, -4.2398418997890985e-08, -8.329423906161537e-08, 7.676774839637801e-05, 0.00022058156901039183, 0.00017708228551782668, 0.00013328752538654953, 7.766774069750682e-05, -5.185556074138731e-05, -0.0004438649630174041, -0.0010384569177404046, -0.0014089603209868073, -0.0011394002940505743, -0.00038534108898602426, 0.00042199838208034635, 0.0013854453573003411, 0.0017737497109919786, 0.0016747398767620325, 0.0014729095855727792, 0.001140809734351933, 0.0007081055082380772, 0.00029581747367046773, 1.6076702991085767e-07, -1.3707190191780683e-06, -1.6351314968687802e-07, 4.939635189771252e-08, 3.101088452694967e-08, -4.395283070834921e-08, 8.352088087804077e-08, 4.068256487244071e-08, -7.088311804182013e-08, 0.00010129140719072893, 0.00021147671213839203, 0.00016002298798412085, 4.3686770368367434e-05, -5.112822327646427e-05, -0.00030832376796752214, -0.0006827975739724934, -0.0010682482970878482, -0.0010965807596221566, -0.0006512636900879443, -2.3635647039554897e-07, 0.0007308549247682095, 0.00155733956489712, 0.0017235616687685251, 0.0013827889924868941, 0.0011008258443325758, 0.0008180598961189389, 0.0005411694291979074, 0.00023145276645664126, 1.810117464629002e-05, -1.1158560653257155e-07, -1.0134307615317084e-08, 1.1419523104905238e-08, 9.358944197401797e-08, 5.291242644034355e-08, -1.7619036896121543e-08, 7.008969049593361e-08, -3.813798343799135e-08, 9.707643766887486e-05, 0.00015909290232229978, 0.00012027871707687154, 1.7216525520780124e-05, -9.588401735527441e-05, -0.00038526763091795146, -0.0005660734605044127, -0.000637259625364095, -0.0004461410571821034, -0.00012542452896013856, 0.00010858915629796684, 0.0007475689635612071, 0.0014390639262273908, 0.001381846610456705, 0.0008420115918852389, 0.0005522695137187839, 0.0003757353115361184, 0.00021040461433585733, 6.155278970254585e-05, -8.481073621169344e-09, 5.0944631624361136e-08, 3.006888960044307e-08, 2.6320684298752894e-08, -7.32932932123731e-08, -5.1331866757209355e-08, -6.196970048222283e-09, -6.578081013230985e-08, -5.4493945356171025e-08, 6.13157608313486e-05, 8.547537436243147e-05, 4.6862543968018144e-05, 2.8032311547576683e-06, -6.670242873951793e-05, -0.00023972123744897544, -0.00025129030109383166, -0.0001591162581462413, -5.257491284282878e-05, 1.8532899048295803e-05, 0.00024894121452234685, 0.0008146619074977934, 0.0012258699862286448, 0.0009451975929550827, 0.00030450610211119056, 9.368226892547682e-05, 6.392842624336481e-05, 4.1807379602687433e-07, -5.904291811020812e-08, -2.4044182282523252e-05, -1.9532301394065144e-06, 6.390083484575371e-08, 2.900814166650889e-08, -4.61964404507853e-08, 4.6975095813195367e-08, 1.81764647777527e-08, -5.145338377587905e-09, -6.379679717838371e-08, 4.596538929035887e-06, -2.1954350870601047e-07, -1.1664775456665666e-06, -5.258682904241141e-06, -8.10346409707563e-06, -2.2647556761512533e-05, 1.9843562768073753e-05, 7.374147389782593e-05, 7.337782881222665e-05, 0.00011935436486965045, 0.00044410739792510867, 0.0008615021361038089, 0.0009346695151180029, 0.0004801758041139692, -8.869483281159773e-08, -0.00014993750664871186, -0.00017436333291698247, -0.00022520138008985668, -0.00014996100799180567, -0.00012116637662984431, -2.6652800443116575e-05, 4.10586764587606e-08, -4.878329207258503e-08, 8.123233641299521e-08, 9.164505598846517e-08, 7.739926388694585e-08, 6.247159234362698e-08, -1.6863992868820787e-08, 1.101668090086605e-09, -0.00012477916607167572, -0.0003147945390082896, -0.00025316490791738033, -9.873082308331504e-05, -4.665098822442815e-05, 6.014114660501946e-06, 7.912225555628538e-05, 0.0001999605738092214, 0.0003759250685106963, 0.0006260580848902464, 0.0008000468369573355, 0.0005108499899506569, 8.989357593236491e-05, -0.0001752282987581566, -0.00032951420871540904, -0.00034172245068475604, -0.00036937466938979924, -0.0002816221967805177, -0.00020593611407093704, -5.5146094382507727e-05, -3.02574676425138e-08, -3.3909486774064135e-08, 5.522447565908806e-08, -8.059956257966405e-09, -6.9840524474784615e-09, -5.990222717855431e-08, -4.794758012849343e-08, -9.450410516365082e-07, -0.00027898832922801375, -0.000574613397475332, -0.0005941289709880948, -0.0004670359776355326, -0.0003153856087010354, -0.00015109851665329188, -1.3610467249236535e-05, 6.338461389532313e-05, 0.00032543836277909577, 0.0005682236514985561, 0.0004773196124006063, 0.00018501178419683129, -7.382335024885833e-05, -0.00030449737096205354, -0.00037113227881491184, -0.0004335512639954686, -0.0004496985056903213, -0.0003671447339002043, -0.00024997370201162994, -5.4073461797088385e-05, 7.261164114424901e-09, 9.511882126389537e-08, -3.475493315363565e-08, 3.201295584176478e-08, -8.212094115833679e-08, -4.234048134321711e-08, -9.433257730506739e-08, -2.9482067475328222e-05, -0.0003055387351196259, -0.0006654065800830722, -0.0008484235731884837, -0.0008325008093379438, -0.000766717828810215, -0.0005886081489734352, -0.00034225857234559953, -6.065715933800675e-05, 0.00012850976781919599, 0.00031803539604879916, 0.0001298531424254179, 5.4995354048514855e-08, -0.0002552393707446754, -0.00032967771403491497, -0.0003698583459481597, -0.00046919059241190553, -0.0005104014999233186, -0.00038833165308460593, -0.00023066173889674246, -2.6585816158331e-05, 5.506393208065674e-08, 7.086880771112192e-08, 9.724751492967698e-08, 9.486503671496394e-08, 7.47842960890921e-08, -8.44363086116573e-08, 7.455300021774747e-08, -6.939041213627206e-06, -0.0002370598231209442, -0.0006456552655436099, -0.0009348677704110742, -0.0010898647597059608, -0.001117683481425047, -0.0009494238765910268, -0.000704537087585777, -0.0003244554391130805, -1.7254473050343222e-06, 5.186580528970808e-05, -2.2740612621419132e-05, -0.0002053332282230258, -0.00036539151915349066, -0.0003960656758863479, -0.0004297905834391713, -0.0005006702267564833, -0.0004683314182329923, -0.00034761003917083144, -0.0001700367865851149, -2.453417096148769e-07, -3.365416745282346e-08, -5.905568656316973e-08, -8.617008262490344e-08, -1.4697306482958084e-08, 8.592436273602289e-08, 3.339333431995328e-08, 2.3549652894416795e-08, -1.781568954584145e-07, -0.00013521077926270664, -0.000474815780762583, -0.0007861626800149679, -0.0009387893951497972, -0.001002251054160297, -0.0008474750211462379, -0.0006464001489803195, -0.00037155201425775886, -0.00015357813390437514, -0.00015648493717890233, -0.0003530450921971351, -0.0004180607502348721, -0.00045918094110675156, -0.00041765885544009507, -0.0004330497176852077, -0.00043137179454788566, -0.0003670896403491497, -0.00023812729341443628, -7.75279404479079e-05, -2.388102586792229e-07, 4.768177319647293e-08, -8.12812572803523e-09, -9.65400701602448e-08, -2.8416451414159383e-09, 8.361387671129705e-08, -8.833566766952572e-09, -1.4093622269228945e-08, 7.314454819606908e-09, -4.9762718845158815e-05, -0.00024511184892617166, -0.000499746878631413, -0.0006583664217032492, -0.000748756225220859, -0.0006936308345757425, -0.0005869931192137301, -0.0004884125664830208, -0.00045261625200510025, -0.0004530295846052468, -0.0005445670103654265, -0.0005014786729589105, -0.0004124676052015275, -0.00034693360794335604, -0.000294895056867972, -0.00022760318825021386, -0.0001542374666314572, -6.338060484267771e-05, -2.3638713742002437e-07, -3.295831163541152e-08, 6.389910822690581e-09, -2.5918765800270194e-08, 4.265674391490393e-08, 3.3983113212343596e-08, 5.106973333113274e-08, 2.8601938595329557e-08, 6.687091058665828e-08, -5.413871662085512e-08, 5.03809332030869e-08, -3.512452167342417e-05, -0.0001735190744511783, -0.00030304171377792954, -0.000451033964054659, -0.0005002353573217988, -0.0005309536936692894, -0.0005505479057319462, -0.0005067548481747508, -0.0004999227821826935, -0.0004284491005819291, -0.00032001943327486515, -9.526325447950512e-05, -1.2373428148748644e-07, -2.6672560125007294e-06, -4.586057968936075e-07, 1.5119005070118874e-07, 4.6217941473969404e-08, -5.6481042065570364e-08, 5.481339826474141e-10, -6.193290147393782e-08, -7.540472068967574e-08, 4.183888790976198e-09, -9.502232245495179e-08, -2.6846436185223865e-09, 5.6670742765163595e-08, -4.53748398854259e-08, 5.764984223333158e-08, 2.5437886961299228e-06, 5.124629387864843e-05, 6.477210263255984e-05, 4.109150540898554e-05, 1.7637755433952407e-07, -2.6918101866613142e-05, -0.00013708509504795074, -0.0002485047443769872, -0.0002862958353944123, -0.00022657305817119777, -6.274302722886205e-05, 4.555875057121739e-05, 0.0001805850479286164, 0.00019640552636701614, 0.00017685987404547632, 0.00014997746620792896, 7.409385580103844e-05, 8.80344543929823e-08, -8.295921105627713e-08, 1.9979111698376073e-09, 6.781157679824901e-08, 2.3342742849763454e-08, 9.500461572997665e-08, 9.047317206523076e-08, -1.982717634518849e-08, 9.838821313223889e-08, -9.274034340478465e-08, 1.0254646554130886e-07, 1.0013965948019177e-05, 6.04682500124909e-05, 0.00011181554145878181, 0.0001964486436918378, 0.00019721389980986714, 0.0001968248834600672, 0.00012922186579089612, 0.00012632075231522322, 0.00011881199316121638, 0.00020567822502925992, 0.0002033313940046355, 0.0002333142765564844, 0.00025626239948906004, 0.0002611813833937049, 0.00020692215184681118, 0.00014328966790344566, 2.9229011488496326e-05, -1.1525595766670449e-07, 6.491021053989243e-09, -8.737677603676275e-08, -6.400104268777795e-08, -1.0966019203806354e-08, -5.7272089293292083e-08, -4.262508213059846e-08, -6.003559605005648e-08, 3.8560720838631823e-08, 1.7005874042297364e-08, -2.6031969468931493e-08, 5.812054837406322e-08, -2.8154914843980805e-08, -3.6077786091937014e-08, 1.3702554497285746e-05, 4.657907265936956e-05, 4.9482718168292195e-05, 4.817348963115364e-05, 6.586535891983658e-05, 8.707860251888633e-05, 0.00012110136594856158, 7.938448834465817e-05, 7.532478775829077e-05, 6.426905747503042e-05, 7.516116602346301e-05, 4.636798985302448e-05, 8.788771992840338e-06, 9.406834777792028e-08, -6.402217422873946e-09, -8.038560395107197e-08, 3.091109590513952e-09, -8.467952028468062e-08, 4.844322631925024e-08, -9.121676924905842e-08, 2.7018202786166512e-08, -4.927046859393158e-08, -2.8196055268381315e-08, 7.077735375560223e-08, 6.175130806695961e-08, 4.992892144173311e-08, -4.49601174068448e-08, 8.715340271692185e-08, 8.387166872125817e-08, 7.631441434341468e-08, -1.5638150330232747e-08, -1.4845340956526343e-07, -1.2926838621751813e-07, 2.971290768982726e-08, 7.686789160743501e-08, -3.8556329684524826e-08, 6.527938012368395e-08, 8.335494072753136e-08, -1.60306754537487e-08, 6.123006812686071e-08, -5.999695673608585e-08, 6.44327826648805e-08, -2.0319987470429623e-08, 7.06861769117495e-08, -1.216832856698602e-09, 2.7358652232578606e-08, 2.876966220810573e-08, -9.483925822451056e-08]"
1e6,10,False,True,"[0.0, 0.0, 0.0, 0.0, 0.0, 0.0, 0.0, 0.0, 0.0, 0.0, 0.0, 0.0, 0.0, 0.0, 0.0, 0.0, 0.0, 0.0, 0.0, 0.0, 0.0, 0.0, 0.0, 0.0, 0.0, 0.0, 0.0, 0.0, 0.0, 0.0, 0.0, 0.0, 0.0, 0.0, 0.0, 0.0, 0.0, 0.0, 0.0, 0.0, 0.0, 0.0, 0.0, 0.0, 0.0, 0.0, 0.0, 0.0, 0.0, 0.0, 0.0, 0.0, 0.0, 0.0, 0.0, 0.0, 0.0, 0.0, 0.0, 0.0, 0.0, 0.0, 0.0, 0.0, 0.0, 0.0, 0.0, 0.0, 0.0, 0.0, 0.0, 0.0, 0.0, -2.021311118483027e-09, -1.313376785105902e-08, -3.258112357684695e-08, -2.0166494252293887e-08, -9.183782623267689e-09, -6.8109393680515495e-09, 0.0, 0.0, 0.0, 0.0, 0.0, 0.0, 0.0, 0.0, -2.8434872234583963e-09, -4.1230567404682006e-08, 0.0, 0.0, 0.0, 0.0, 0.0, -3.57967711028806e-10, 0.0, -3.57967711028806e-10, -2.7037212468883354e-09, -6.969955990143717e-08, -2.4704300471967144e-07, -5.203498858463718e-07, -7.871607294873684e-07, -9.287098237109603e-07, -7.604435836583434e-07, -6.535112788697006e-07, -2.8393515094649047e-07, -2.944617172317976e-08, -2.6726416635369787e-09, 0.0, 0.0, 0.0, 0.0, 0.0, 0.0, 0.0, -4.9761026410521936e-09, 0.0, 0.0, -2.3073787672189816e-11, -5.493010046819791e-09, -2.5432049355345043e-08, -8.012987251504455e-08, -1.2774607682786154e-07, -1.8976690796534967e-07, -1.7799017371089576e-07, -2.988498692957364e-07, -3.860094182073226e-07, -8.140493719110964e-07, -1.1614115464908537e-05, -3.342541731399251e-06, -1.5003968201199314e-06, -1.3112712622387335e-06, -1.070254938895232e-06, -8.107884923447273e-07, -4.1202022771358315e-07, -1.793653154891217e-07, -9.848171345083756e-08, -1.394160431544833e-08, 0.0, 0.0, 0.0, 0.0, 0.0, -3.909794799028532e-08, 0.0, -1.2204663057957532e-08, -7.838033155849189e-08, -2.1165107000342687e-07, -2.7477295816424885e-07, -4.0638943232806923e-07, -4.948656169290189e-07, -4.3205918132116494e-07, -4.435011305758962e-06, -0.0001207272507599555, -0.00028912746347486973, -0.0004011930141132325, -0.0005573288071900606, -0.0006712971953675151, -0.0006817614776082337, -0.000600080587901175, -0.0005120118730701506, -0.00036379153607413173, -0.00016921060159802437, -6.787732900193078e-07, -3.455959927123331e-07, -1.0411312700853159e-07, -4.4531024201432956e-08, 0.0, 0.0, 0.0, 0.0, 0.0, 0.0, -6.181090128620781e-08, -2.6675581921153935e-07, -4.64771318320345e-07, -6.678821478089958e-07, -7.10294843884185e-05, -0.00015109624655451626, -0.0001601551048224792, -7.935861503938213e-05, -2.897685362768243e-07, 2.775390726128535e-07, -1.4035003381707156e-08, -3.5625998862087727e-07, -7.733675602139556e-07, -0.0001981693785637617, -0.00047587353037670255, -0.000660610559862107, -0.0007288149790838361, -0.0006479356670752168, -0.00037459845771081746, -4.177471419097856e-05, -2.451224929700402e-07, -6.724503265331805e-08, -2.5934379643821615e-10, 0.0, 0.0, 0.0, 0.0, 0.0, -1.2009090255560295e-07, -4.148633934164536e-07, -8.070653620961821e-07, -1.0574045745670446e-06, -1.1941187949560117e-06, -1.3862689911547932e-06, -1.3063204278296325e-06, 7.3839032666001e-07, 9.723514722281834e-07, 0.00020537035015877336, 0.0005052477936260402, 0.0004000273474957794, 5.019118702875858e-07, 5.505544322659262e-07, 1.2180048258869647e-07, -0.0003103975031990558, -0.000607360911089927, -0.0007601043325848877, -0.0007097513298504055, -0.000366964319255203, -3.5975520518150006e-07, -1.1868100813217097e-07, -1.7266836849216816e-09, 0.0, 0.0, 1.8796705858470375e-10, 3.759341171694075e-10, -1.9689767594144314e-09, -1.3286533828704705e-07, -3.903739980160026e-07, -3.8342233210642007e-07, -1.3685666999663226e-07, 1.444226995772624e-07, 5.501023565557261e-07, 4.839357643504627e-07, 8.042597414714692e-07, 4.415664079715498e-05, 0.00016873593267519027, 0.0002554332313593477, 0.0002814985055010766, 0.0001480265927966684, 1.0418066267448012e-06, 8.727551517040411e-07, -2.734496007406051e-08, -0.0003253280301578343, -0.0006810337072238326, -0.000800298759713769, -0.0005419630906544626, -5.897355208617228e-07, -2.4193059289245866e-07, -9.4865237887376e-10, 0.0, 0.0, 6.01494587471052e-09, 1.152202688814441e-08, -1.5556878452116507e-08, -4.04582038981971e-08, 1.3715748536924366e-07, 4.2871832306445867e-07, 7.108336603778298e-07, 1.0816854683071142e-06, 9.224791028827894e-07, 4.201480692245241e-07, 6.04693639161269e-07, 5.559335249927244e-07, 1.770447539684028e-07, -1.204037403113034e-07, 4.310941221774556e-07, 0.00019842218898702413, 0.000126899903989397, 1.0185759720116039e-06, 5.418938258117123e-07, -4.060427372110098e-08, -0.0004120608791708946, -0.0006416316027753055, -0.0005150479846633971, -6.836305601609638e-07, -1.5104201622762048e-07, 0.0, 0.0, 0.0, 0.0, 0.0, 7.004156543644058e-08, 3.998253248482797e-07, 4.0781316101856646e-07, 5.872507813364791e-07, 1.5703365079389187e-06, 1.4197752307154587e-06, 7.32986620732845e-07, -2.9716846938754315e-07, -9.107443474931642e-05, -0.0004762608150485903, -0.0003701865207403898, -9.673378826846601e-07, 5.57043676963076e-06, 0.0005975962849333882, 0.0006227591075003147, 0.0004360908642411232, 1.852529567258898e-05, 7.53310132495244e-07, 2.6739579084278375e-07, -0.00014458864461630583, -0.00014605560863856226, -4.4317570768726e-07, -8.271157092565318e-09, 0.0, 0.0, 0.0, 0.0, 0.0, 2.3315347164043487e-07, 5.975350632070331e-07, 4.563025868264958e-07, 6.731694952577527e-07, 1.5947977090036147e-06, 1.257385974895442e-06, -4.442141801064281e-07, -0.00037048180820420384, -0.00098500307649374, -0.001133615616708994, -0.0005228104419074953, -1.043935185407463e-06, 0.000582573120482266, 0.0012773181078955531, 0.0013234299840405583, 0.0011663781479001045, 0.0007958824862726033, 0.00018710362201090902, 8.015139769668167e-07, -3.7417160569930275e-07, -6.346304530779889e-07, -3.9888101355245453e-07, 1.0487570811790192e-09, 0.0, 0.0, 0.0, 0.0, 4.716925183778642e-10, 2.6117095330846496e-07, 6.870264996905462e-07, 5.985971256450284e-07, 6.277224997575104e-07, 1.0912922334682662e-06, -4.5569547069135297e-07, -0.0003012240631505847, -0.0010106922127306461, -0.0013970989966765046, -0.0010412824340164661, -9.555685392115265e-05, -7.883794239660347e-08, 0.0011318536708131433, 0.0016545990947633982, 0.0015665022656321526, 0.0013413403648883104, 0.00091730518033728, 0.0003759107494261116, 1.1213070365556632e-06, 1.6517331857812678e-07, -8.433439546706722e-08, -6.994007861749196e-08, 0.0, 0.0, 0.0, 0.0, 0.0, 3.1032404423925186e-10, 1.42790455015529e-07, 6.853278478047287e-07, 5.919943077969947e-07, 3.2704912200642866e-07, -6.763660564956808e-08, -5.1884071581298485e-05, -0.0005998954875394702, -0.0010300753638148308, -0.0010204912396147847, -0.0004512971790973097, 2.1749808354343259e-07, 0.0003059797454625368, 0.0013547161361202598, 0.0015738067450001836, 0.0011676696594804525, 0.0008043719572015107, 0.00043870427180081606, 9.583484643371776e-05, 7.6020972983315e-07, 1.8017171043993585e-07, -3.398238845875312e-08, -1.6381372924811899e-09, 0.0, 0.0, 0.0, 0.0, 0.0, 1.8367330767432577e-08, 2.3577872809710243e-07, 6.47353544991347e-07, 2.866997590444953e-07, 7.119056988358352e-08, -6.140786581454449e-07, -0.00011169986828463152, -0.00037621590308845043, -0.0004496104083955288, -0.0002045814908342436, 2.612827074699453e-07, 5.894775654269324e-07, 0.0004307859926484525, 0.0012985316570848227, 0.0012017746921628714, 0.0004862244240939617, 6.09983762842603e-05, 1.4023966059539816e-06, 8.511034366165404e-07, 2.66453554331747e-07, 2.562894896307455e-10, -8.176176891083742e-08, -2.0380012344389797e-08, 0.0, 0.0, 0.0, 0.0, 0.0, 3.812087534527109e-09, 8.397869777354572e-08, 4.391602885789325e-07, 3.2949640171864303e-07, 9.569618697469195e-08, -1.6976197514395608e-07, -1.260360136257077e-06, -1.0232009799437947e-06, 2.5092674604820786e-07, 8.7720161445759e-07, 1.1067751302107354e-06, 1.0269278618579847e-06, 0.0006589022814296186, 0.0011549533810466528, 0.000729088147636503, 5.137074765571015e-08, 3.5569490819398197e-07, 6.569468951056479e-07, 1.3072278193249076e-07, 8.190635014670988e-08, -7.068995699910374e-08, -9.116541832554503e-08, -6.418782305672721e-08, 0.0, 0.0, 0.0, 0.0, 0.0, 0.0, 5.527908797375858e-08, 1.481115248225251e-07, -6.980075539786412e-08, -2.479801253230107e-07, -2.148364508514078e-08, 2.5489964627922745e-07, 5.775665385954198e-07, 6.907779948051029e-07, 7.41734595521848e-07, 3.769675345210999e-07, 0.00024094975378829986, 0.0007969836588017642, 0.0008867443539202213, 0.00020295684225857258, -1.8352127995058254e-07, -3.375350274836819e-07, -6.847233748885628e-07, -5.319229785527568e-07, -2.717396796469984e-07, -3.371378909378109e-07, -1.424860869292388e-07, -6.015049791585625e-08, 0.0, 0.0, 0.0, 0.0, 0.0, 0.0, 2.7130983681900034e-08, -8.091154057865424e-08, -1.017506406242319e-06, -1.1746512882382376e-06, -9.290295679420524e-07, -3.2916690884121635e-07, 2.2709303948431625e-07, 4.820307140107616e-07, 5.664015816364554e-07, 0.00011303576320642605, 0.0004865019000135362, 0.0007933446322567761, 0.0004076685872860253, 2.624546482365986e-07, -6.555210347869433e-07, -0.000187253812327981, -0.00018584879580885172, -0.00013652467168867588, -6.412525976884353e-07, -4.913663360639475e-07, -2.1557507068337145e-07, -9.828823976931744e-09, 0.0, 0.0, 0.0, 0.0, 0.0, -5.712401107693665e-10, -1.105295623915481e-07, -4.0056144712252717e-07, -0.00028315535746514797, -0.0003084041236434132, -0.00012978329323232174, -1.4551737876900006e-06, -4.7382715706589806e-07, -2.425345826395642e-07, -5.23098506732822e-08, 1.3751564438280184e-06, 0.0004240008711349219, 0.0003908039361704141, 4.806441893379088e-07, -1.4422519711843051e-07, -0.00010515864414628595, -0.00023949156457092613, -0.0002842135145328939, -0.00023677181161474437, -5.8025056205224246e-05, -5.260607167656417e-07, -2.7694468940353545e-07, -4.00433552982804e-09, 0.0, 0.0, 0.0, 0.0, 0.0, -4.7896286936577326e-09, -2.721128282701102e-07, -6.830508141320024e-07, -0.00043479009764268994, -0.00067674252204597, -0.0006684627151116729, -0.0005804189713671803, -0.00036714726593345404, -3.367835233802907e-05, -6.405294357136881e-07, 2.2381883013622428e-07, 7.803634071024135e-05, 2.446502378461446e-07, 5.060333307937981e-08, -8.325909561790468e-07, -0.00017115853552240878, -0.00022902266937308013, -0.0003117572341579944, -0.00029461237136274576, -6.858358392491937e-05, -6.237154366317554e-07, -2.2898538531990198e-07, -6.9490186938026e-09, 0.0, 0.0, 0.0, 0.0, 3.077555765784723e-09, -1.664084159358481e-08, -2.507049714495224e-07, -7.361232405855844e-07, -0.0004268410266377032, -0.0008117849938571453, -0.0010247551836073399, -0.0010819927556440234, -0.0008920003310777247, -0.0005524300504475832, -1.5908932482489035e-06, -4.526538646132394e-07, 1.2825145745409827e-07, -1.9692870978360588e-07, -5.749247407038638e-07, -0.0001776359131326899, -0.0002730034466367215, -0.000288999464828521, -0.0003198050835635513, -0.00020874444453511387, -7.189701136667281e-07, -4.634754020571563e-07, -9.721379967686516e-08, -6.584988110347467e-09, 0.0, 0.0, 0.0, 0.0, 2.6501172367687786e-09, -3.6595746877310376e-08, -1.7559999321292707e-07, -5.561316243074543e-07, -0.00022271535999607295, -0.0006699730292893946, -0.0009068296640180051, -0.0010089974384754896, -0.0008452442707493901, -0.0005696613225154579, -0.00016711709031369537, -5.178505944058998e-07, -4.2593296711856965e-07, -0.00011183119931956753, -0.00027432802016846836, -0.00036703821388073266, -0.0003042987664230168, -0.0002563573943916708, -0.00018726020061876625, -4.541203816188499e-05, -3.550209441982588e-07, -3.067694080982619e-07, -3.6251169177603515e-08, -8.162583109427857e-11, 0.0, 0.0, 0.0, 0.0, 0.0, -1.6062294605490024e-08, -7.026751802641229e-08, -2.4124517494783504e-07, -6.139677566352475e-07, -0.0003210918512195349, -0.0005791647708974779, -0.0007268680492416024, -0.0006957678124308586, -0.0005834609619341791, -0.00043910613749176264, -0.0003790008486248553, -0.0003851398651022464, -0.0005104824085719883, -0.00045177823631092906, -0.0002887316222768277, -0.00014011244638822973, -8.195135023925104e-07, -2.701416121908551e-07, -2.279482345102224e-07, -1.143794534641529e-07, -1.340578137387638e-07, 2.284800793006525e-09, -6.413458653042881e-10, 0.0, 0.0, 0.0, 0.0, 0.0, -1.499838919727381e-09, 8.935672202170508e-10, 5.2207237644097404e-08, -2.0120690891189952e-08, -5.680024059984135e-07, -6.285607378231362e-05, -0.0002720965421758592, -0.0003721355751622468, -0.0004405782383400947, -0.0004790484090335667, -0.00043225171975791454, -0.00040875046397559345, -0.0002768818521872163, -5.923613571212627e-05, -5.923718049416493e-07, -5.022534566023751e-08, 1.8483572716831986e-07, 2.745946803273114e-09, 6.279950071075291e-08, 3.48095063884557e-08, 4.485796623043825e-09, 4.2125369859036255e-09, 0.0, 0.0, 0.0, 0.0, 0.0, 0.0, 0.0, 3.242102764033916e-08, 2.397167406797962e-07, 4.703456966126396e-07, 2.61175642890521e-07, 1.0817641538096723e-07, -1.7962045717467845e-07, -3.4908023849311576e-07, 1.2847671371218894e-08, 1.3017356081945763e-07, 1.5267468711499532e-07, 2.096045363941812e-07, 1.925524628632047e-07, 4.2862697569034935e-07, 3.3610282912377443e-07, 5.901124495721888e-07, 6.536591854455764e-07, 3.784371642723272e-07, 1.9402024520331906e-07, 1.1235170660484073e-07, 5.615478748666192e-09, 1.2914136426900313e-09, 0.0, 0.0, 0.0, 0.0, 0.0, 0.0, 0.0, 3.4422772188236195e-08, 1.3055169745257444e-07, 1.4573215878499468e-07, 4.241036677399279e-08, 2.0160457836482237e-07, 2.2617301453919936e-07, 2.854543481589644e-07, 3.9342367585959437e-07, 5.64668994229578e-07, 3.764817506635154e-07, 7.449910413015459e-07, 6.41592521333223e-07, 3.652532996056834e-07, 3.2345022304980375e-07, 6.079958438931499e-07, 5.966493858977628e-07, 3.007756390616123e-07, 6.176647104894073e-08, -5.6267754899863576e-09, -9.648832843822674e-09, 0.0, 0.0, 0.0, 0.0, 0.0, 0.0, 0.0, 0.0, 0.0, 7.67033492277136e-10, 4.9787804989875895e-09, 1.3309825241947237e-08, 8.369773496497146e-08, 1.64108882927394e-07, 1.514608385377869e-07, 2.9515669552893087e-07, 3.535693622325198e-07, 2.888579331283836e-07, 3.4965745498993783e-07, 3.5895666883334343e-07, 2.553325941789808e-07, 9.092007502431443e-08, 3.7092365801072447e-07, 4.476342212456075e-07, 1.1744804595537062e-07, 2.703772317147468e-09, 2.0688269153357197e-10, 0.0, 0.0, 0.0, 0.0, 0.0, 0.0, 0.0, 0.0, 0.0, 0.0, 0.0, 0.0, 0.0, 2.702695012235523e-10, 3.665529879626206e-09, -3.224657163514166e-08, -7.806264079590619e-08, -7.806264079590619e-08, -2.4245027319125256e-08, 5.465293106965419e-09, 2.5877727738432554e-10, 0.0, 0.0, 2.7031166638380455e-08, 4.2106240272232753e-08, 9.356941887972425e-09, 0.0, 0.0, 0.0, 0.0, 0.0, 0.0, 0.0]"
1e6,10,False,False,"[3.929383751710702e-07, -4.2772131791934953e-07, -5.462970875669271e-07, 1.0262953509254658e-07, 4.3893794554605847e-07, -1.537870844003919e-07, 9.615283715902478e-07, 3.696594887969695e-07, -3.8136196423010915e-08, -2.157649703349307e-07, -3.1364396591015975e-07, 4.5809940729668597e-07, -1.2285551065360778e-07, -8.806442224340572e-07, -2.0391148325415998e-07, 4.7599081653970643e-07, -6.350165335788915e-07, -6.490964779004571e-07, 6.31027461395206e-08, 6.365517180029201e-08, 2.6880192649514356e-07, 6.988635732341208e-07, 4.489106402161269e-07, 2.220470207703329e-07, 4.448867514383892e-07, -3.5408217513577256e-07, -2.7642269628813665e-07, -5.43473561265273e-07, -4.125718930936273e-07, 2.6195223767899734e-07, -8.157901447702898e-07, -1.325976484167768e-07, -1.3827447276071325e-07, -1.2629804757580132e-08, -1.483394242995928e-07, -3.754775548259204e-07, -1.4729738495589118e-07, 7.867783438086917e-07, 8.883200166565075e-07, 3.6733518449239e-09, 2.4790591623968794e-07, -7.687631864428113e-07, -3.654290310350916e-07, -1.7034757604506012e-07, 7.326183322220459e-07, -4.990892534806335e-07, -3.393147096630855e-08, 9.71119561654632e-07, 3.897023859167348e-08, 2.2578905145564931e-07, -7.587426580357715e-07, 6.526815923280083e-07, 2.061202621916891e-07, 9.013601243168523e-08, -3.144723450532183e-07, -3.9175841948235757e-07, -1.659555834976345e-07, 3.626015256941173e-07, 7.509136707994912e-07, 2.0844675319153794e-08, 3.3862755799418665e-07, 1.7187311129873706e-07, 2.4980701596177823e-07, 3.493780980079464e-07, 6.846848918939941e-07, -8.336100449923833e-07, 5.273656711324293e-07, -5.126672704136581e-07, -6.115540713835799e-07, 1.4491391198134806e-07, -1.0778097703223466e-06, -8.417515005021414e-07, -4.718750460597221e-06, -9.614749615138862e-06, -1.3155867236491758e-05, -1.0161612408410292e-05, -4.18191120843403e-06, -2.171933147110394e-06, -1.6539303260287852e-06, 1.1503557573178114e-07, -3.6246714785193035e-07, 3.839406019778835e-07, 1.0876649980673392e-07, -2.2209884775747923e-07, 8.502649961883435e-07, 6.833399766037473e-07, -2.8520486239358434e-07, -1.1716668950612075e-06, -4.14379064750392e-06, -2.036286304019086e-07, 4.0991767491505016e-07, 9.907170124279219e-07, -9.64005153036851e-07, -4.2019692045869306e-06, -7.693311090406496e-06, -1.116801104217302e-05, -2.0541903722914867e-05, -2.906348163378425e-05, -5.3858242608839646e-05, -9.144011710304767e-05, -0.0001029788691084832, -0.00011126557365059853, -0.00012910313671454787, -0.00011962784628849477, -9.589267574483529e-05, -5.097744724480435e-05, -1.84579494089121e-05, -8.191679626179393e-06, -3.4078300359396962e-06, -5.008760126656853e-07, -4.010238399132504e-07, -2.9147065561119234e-07, -6.578363240805629e-07, 6.582252467524086e-07, -3.226583089599444e-07, -3.4824762451535207e-07, 1.5710293155279942e-07, -2.394421869666985e-07, -4.724117388832383e-06, -9.700726877781563e-06, -2.12022423511371e-05, -4.903498847852461e-05, -7.311964145628735e-05, -8.594413520768285e-05, -8.553927182219923e-05, -0.00011544270091690123, -0.00019471760606393218, -0.0003065600758418441, -0.0003682949172798544, -0.0003795571974478662, -0.0003694730985444039, -0.0003207855043001473, -0.0002616213751025498, -0.00022685853764414787, -0.00014827336417511106, -9.233739547198638e-05, -4.99728303111624e-05, -1.2827371392631903e-05, -1.7119576796176261e-06, 9.552714175242727e-08, -8.133465598803014e-07, -4.062784455527435e-07, 8.551684800295334e-07, -3.421181418161723e-06, -7.23079722320108e-07, -8.376483492611442e-06, -3.1980449421098456e-05, -7.820740574970841e-05, -0.00013465958181768656, -0.0001911244326038286, -0.0002135290123987943, -0.0001434798032278195, -0.00011367162369424477, -0.00017765247321221977, -0.0003158461768180132, -0.00039797721547074616, -0.0005514757940545678, -0.0006912091048434377, -0.0007590564200654626, -0.0007550338050350547, -0.0007343715988099575, -0.0006490516243502498, -0.0005240121972747147, -0.00035112048499286175, -0.00019909250841010362, -6.616434984607622e-05, -1.6860532923601568e-05, 5.627259724860778e-07, 5.01433987665223e-07, 1.4812765414262685e-07, 2.8298612164689985e-07, -8.417021035711514e-07, -5.969036465103272e-06, -4.4078526116209105e-05, -0.00010456555901328102, -0.00018271125736646354, -0.00026232551317662, -0.0002687625237740576, -0.00023482907272409648, -0.00019185987184755504, -0.00013689348998013884, -6.477533315774053e-05, 2.7609972676145844e-05, 0.00014973877114243805, 0.0001307348138652742, -0.00010287162149325013, -0.0003882311866618693, -0.0006162435747683048, -0.0008022629772312939, -0.0008983842562884092, -0.0008737860480323434, -0.0006841043359600008, -0.00045799039071425796, -0.00021176614973228425, -5.80891064601019e-05, -4.23303026764188e-06, -9.356041346109123e-07, 4.895613301414414e-07, -1.992060987277e-07, -7.273036999322358e-07, -7.582292710139882e-06, -7.066127000143752e-05, -0.00013916542229708284, -0.0002312213327968493, -0.00023582144058309495, -0.00020694485283456743, -0.0001792059774743393, -0.00013784400653094053, 8.077196071099024e-06, 0.0002432462206343189, 0.00048263653297908604, 0.0007182448171079159, 0.0006606741226278245, 0.000343867955962196, -1.0230002089883783e-06, -0.000305550784105435, -0.0005755627644248307, -0.0008268252131529152, -0.0009759425884112716, -0.0009596343734301627, -0.0007089932332746685, -0.00036989786894991994, -8.612839883426204e-05, -4.633168828149792e-06, 8.367949249077355e-07, -8.174073400368798e-07, -5.522929313883651e-08, 4.5739437837255537e-07, -3.0794328722549835e-06, -4.6991459385026246e-05, -7.92236824054271e-05, -9.29892630665563e-05, -2.059975486190524e-05, -1.3344213584787212e-05, 2.076777491311077e-05, -4.607134542311542e-05, 6.384841981343925e-06, 0.0002457696245983243, 0.0003994286817032844, 0.000484153104480356, 0.00046134457807056606, 0.00036181960604153574, 0.00021769503655377775, -4.7982099204091355e-05, -0.0003411682846490294, -0.0006550383404828608, -0.0009520403691567481, -0.0010531501611694694, -0.0008661503088660538, -0.00045381905511021614, -0.00011217255087103695, -8.759969205129892e-06, 4.3120255099893257e-07, -1.789604340274309e-07, -5.909771516598994e-08, 4.088393325218931e-06, 4.404247192724142e-06, 1.4136088793748058e-05, 4.8603611503494903e-05, 0.00010573136387392879, 0.00010206101433141157, 0.00012142239575041458, 0.000107750398456119, 9.05422984942561e-06, -3.6782395909540355e-05, -0.00013634058996103704, -8.310675184475258e-05, 8.4823121142108e-05, 0.00030493963276967406, 0.0004120214143767953, 0.0003670870792120695, 0.00018796493532136083, -4.0855327824829146e-05, -0.00042532291263341904, -0.0007653895881958306, -0.0009513571858406067, -0.0008634379482828081, -0.0004607495793607086, -0.0001013548971968703, -8.222783435485326e-06, 7.751869475214335e-07, -9.677627303972258e-07, -7.253193530232238e-07, 9.232214324583765e-06, 3.604370795073919e-05, 0.0001233939838130027, 0.00015271781012415886, 0.00021806279255542904, 0.000252202880801633, 0.00017179513815790415, 0.00013878480240236968, -0.00010289944475516677, -0.00045101463911123574, -0.0007280073477886617, -0.0006216923356987536, -0.00019179425726179034, 0.0004209246835671365, 0.0007863140199333429, 0.0007922418299131095, 0.0006706523126922548, 0.0004005467926617712, 2.9853878004360013e-05, -0.0003436369006522, -0.0005996723775751889, -0.0006003238377161324, -0.00034120655618608, -7.504241511924192e-05, -4.0141962927009445e-06, 1.3620642391742876e-07, -5.490732633006701e-07, 1.063365971276653e-06, 1.604815770406276e-05, 8.553259976906702e-05, 0.00021456067042890936, 0.00021487000049091876, 0.0002722771023400128, 0.00027064874302595854, 0.00015965370403137058, -5.1928906032117084e-05, -0.0005638048169203103, -0.0010686401510611176, -0.001202125451527536, -0.0007316753617487848, 4.6915531129343435e-05, 0.0009283898980356753, 0.0014150768984109163, 0.001430539065040648, 0.0012854592641815543, 0.0010252430802211165, 0.0005616509006358683, 0.00011746893142117187, -0.00022856020950712264, -0.00029190766508691013, -0.00017119145195465535, -3.919032678822987e-05, -3.5618554647953715e-06, -2.2025153612048598e-07, 5.095941446597863e-07, 9.166630547952082e-07, 2.3750337277306244e-05, 0.00012780958786606789, 0.00026409648125991225, 0.00021522500901483, 0.0001679480483289808, 0.00012080503802280873, -8.264383359346539e-05, -0.000459084112662822, -0.0010401143226772547, -0.00141080841422081, -0.0011511812917888165, -0.00041640535346232355, 0.0004851102421525866, 0.0014226946514099836, 0.0017974263755604625, 0.0016961940564215183, 0.001493727439083159, 0.0011669774539768696, 0.0007429213146679103, 0.000341852632118389, 4.2979019781341776e-05, -6.116995064076036e-05, -4.729649663204327e-05, -1.7045042113750242e-05, -5.689890940629994e-07, -4.439528140665061e-07, 4.835208642361977e-07, 4.147603647197684e-07, 2.755202876869589e-05, 0.00015042074664961547, 0.0002529353369027376, 0.00019736128160730004, 8.069102477747947e-05, -7.496574107790366e-05, -0.0003437141713220626, -0.0006953219417482615, -0.0010748720960691571, -0.001107467687688768, -0.0006744660204276443, -1.3292660696606617e-05, 0.0007838738965801895, 0.0015886315377429128, 0.0017503233393654227, 0.0014142458094283938, 0.0011373477755114436, 0.0008601720910519361, 0.0005879041855223477, 0.00028536032186821103, 7.580134843010455e-05, -1.6531508663319983e-05, -1.554268783365842e-05, -3.608286988310283e-06, -3.0641055559499364e-07, -5.298792871144542e-07, -1.7619038672478382e-08, -3.3810192689998075e-07, 3.118126915069297e-05, 0.00014574031229130924, 0.00019979300850536674, 0.00015667623665649444, 5.507324021891691e-05, -0.00012782886915374547, -0.0004227048484608531, -0.0005940937553532422, -0.000663935614284128, -0.0004780091403517872, -0.0001690006029093638, 0.0001680781424511224, 0.0007853838033042848, 0.00146130018401891, 0.0014091564808040857, 0.0008841454400680959, 0.0006049460498616099, 0.00043378138798289, 0.000263267575064674, 0.00011130754865007475, 1.1805499525507912e-05, -3.420693246880546e-05, -2.8880695026600733e-06, -1.7745725244822097e-07, 7.267067303473596e-07, -4.4569728174792544e-07, -4.0619696051180654e-07, 9.323840117758664e-07, 1.942732706083916e-05, 0.00011223911860724911, 0.0001287830964429304, 8.59170759213157e-05, 4.0460356103722006e-05, -8.567795885028318e-05, -0.00027798025985248387, -0.0002915862132795155, -0.00019773670646827668, -7.65244840295054e-05, 6.227285484783351e-05, 0.0002829822478815913, 0.0008335311431437731, 0.001239381148479879, 0.0009737184154801071, 0.00035808372194878757, 0.00013814734120387584, 8.115063246805221e-05, -3.952147380914539e-05, -4.256529427948408e-05, -7.687970355618745e-05, -5.9216963563812897e-05, -4.001099568995414e-06, 1.0212986580881989e-06, -4.461964238089422e-07, 4.6975095813195367e-08, -7.818235872036894e-07, -8.055809530560509e-07, 6.01649708187324e-06, 6.034454781911336e-05, 8.394517863052897e-06, -3.807583198067732e-05, -5.838303877681028e-06, 1.2139619684603531e-05, -1.4862272109894548e-05, 5.238243829808198e-05, 0.00010184261918766424, 0.00010085173562401906, 0.00014905516582075506, 0.0004675280360970646, 0.0008725721854716539, 0.0009458567947149277, 0.000514321553055197, 1.1021547834388912e-05, -0.0001842038764152676, -0.00020884181139990687, -0.00026407427503727376, -0.00019402567704673856, -0.00016962538938969374, -8.229452214436606e-05, -5.775814315711614e-06, 9.540710834698984e-07, -9.187677392219484e-07, 2.916450512202573e-07, -9.226008046425704e-07, 6.575356223947892e-07, 6.034169075519458e-08, -1.4346295756695326e-05, -0.0001793184783309698, -0.0003646719269454479, -0.0003071845567319542, -0.00014410915900953114, -6.087068686611019e-05, 4.66561978100799e-05, 0.00011554046795936301, 0.00023422636149916798, 0.00040622043889015913, 0.0006455474067479372, 0.0008078081300482154, 0.0005293127032928169, 0.0001387834781780839, -0.0002139688585884869, -0.00035754413693211973, -0.0003721832181327045, -0.00040525771328248084, -0.00032293249387294054, -0.0002522762806620449, -0.00010926263348665088, -3.1428107831743546e-06, 3.8216342090890976e-07, -7.447755479006446e-07, 9.868665529211285e-07, -6.984055112013721e-09, 1.3060069647963246e-07, -6.595940703846281e-06, -5.6920172937680036e-05, -0.00032473221654072404, -0.0006099328747950494, -0.0006297444342635572, -0.0005075966473668814, -0.0003618999326135963, -0.00019932315626647323, -5.248585875960998e-05, 0.0001140365275205113, 0.00036383679253049195, 0.0005902397097088397, 0.0004950894508510828, 0.0002207096986239776, -0.00012419422273524106, -0.00033408994204364717, -0.00039889197796583176, -0.0004637757083401084, -0.00048366887494921684, -0.0004067550180479884, -0.0002960943093057722, -0.00010709747584769502, -5.7493880376568995e-06, -1.6680243106748094e-06, 9.652451353758806e-07, 2.320129510735569e-07, -8.82121014456061e-07, -1.6435590168839553e-06, -7.88246325100772e-06, -8.386493573198095e-05, -0.0003473867545835674, -0.0006940013845451176, -0.0008716581505723298, -0.0008551683858968318, -0.0007911853608675301, -0.0006164857768453658, -0.0003785945300478488, -0.00011102343705715612, 0.0001787213986972347, 0.0003524541389197111, 0.0001679254783084616, -1.6745472748880275e-05, -0.000292043958324939, -0.00035684529575519264, -0.000398982607293874, -0.0005000291275791824, -0.000544460432138294, -0.00042880038381554186, -0.00027762699755840003, -8.116912067634985e-05, -1.5516881830990314e-05, -1.0861778036996839e-06, -5.027524707656994e-07, 2.9486503194675606e-07, -9.252157724404242e-07, -1.2962709661223926e-06, -1.0496390132175293e-05, -6.149426189949736e-05, -0.00027928350027650595, -0.000672517460770905, -0.0009522927575744689, -0.0011012284085154533, -0.001126228366047144, -0.0009595692972652614, -0.0007229215698316693, -0.00035972471232526004, -3.359456604812294e-05, 0.00010655494406819344, -7.699052366660908e-05, -0.00024494744138792157, -0.00039229606045410037, -0.00042134898831136525, -0.000458622322184965, -0.0005337094771675766, -0.000506197742652148, -0.00039070050115697086, -0.0002198291476815939, -3.8662412407575175e-05, -1.6518642951268703e-05, -1.8145968851968064e-06, -8.174124843662867e-08, 5.853027005287004e-07, -5.140756229593535e-07, -1.6146259440574795e-07, -9.572623639542144e-06, -5.46854171261657e-05, -0.00018088983779307455, -0.0005046927253715694, -0.0008028516313061118, -0.0009469298529438674, -0.0010059436317533255, -0.0008520063129253685, -0.0006566666415892541, -0.0003926539502572268, -0.00018557596195023507, -0.000191371887922287, -0.0003805779560934752, -0.0004393267445266247, -0.0004787039360962808, -0.0004418984171934426, -0.00046453007962554693, -0.00046936990111134946, -0.0004097486671525985, -0.00028735303203575313, -0.00013193616177886724, -2.1077770725241862e-05, -1.9702491044881754e-05, -1.9530377812770894e-06, -6.965400984881853e-07, -4.028416356050002e-07, 8.836139500090212e-07, 7.925727913971059e-07, -5.304519163473742e-06, -2.9647924748132937e-05, -0.00010036453022621572, -0.00028298841789364815, -0.0005231559625826776, -0.0006719112279824913, -0.0007560888188891113, -0.000697301933541894, -0.0005897607770748436, -0.0004953371244482696, -0.0004625272413250059, -0.00046384427696466446, -0.0005539960111491382, -0.0005147215561009943, -0.00043489335803315043, -0.0003788494213949889, -0.00033707168768160045, -0.0002762924996204674, -0.0002070933551294729, -0.00012021145084872842, -5.1597064157249406e-05, -1.2341374713287223e-05, -1.183691892947536e-05, -5.323661866896146e-07, 2.4265673914669605e-07, -9.660169553171727e-07, -5.489302452588163e-07, 4.5778286050790484e-08, -3.910686245944817e-06, -1.6350450096069835e-05, -2.2016165530658327e-05, -8.395999611821026e-05, -0.00021252015721984208, -0.00033297386835329235, -0.0004725548205897212, -0.0005147241172380745, -0.000540717679541558, -0.000559808686375618, -0.0005178293213248253, -0.0005143700400367379, -0.00045104275341145694, -0.00035539219970814884, -0.00014024438860360533, -2.3238500943989493e-05, -3.600621857913211e-05, -3.214641401427798e-05, 2.6237643396598287e-05, 1.0969905815727543e-05, -1.4557011809301912e-06, -4.2130793076466944e-07, -6.885482889629202e-06, -1.6202228607653524e-06, -9.958162081602495e-07, 9.049777531799919e-07, -2.6846409539871274e-09, -3.4332924769842066e-07, -4.0249865378427785e-06, 1.667495962465182e-05, 6.0181973822182044e-05, 0.00010566056153038517, 0.00011158191773574799, 8.315478771692142e-05, -2.617210520838853e-05, -7.261725113494322e-05, -0.00018009189807344228, -0.0002893629134632647, -0.0003297493967693299, -0.00027219377807341516, -9.476223931415007e-05, 9.073068213183433e-05, 0.00022144548711366951, 0.00023692235117778182, 0.000219606765313074, 0.0001962115929927677, 0.00012487034837249666, 4.694766903412528e-05, 1.1612490197876468e-05, -6.605209364352049e-06, -3.3865970294755243e-07, 2.233427522924103e-07, 6.950046440579172e-07, 8.904732453629549e-07, -4.198271597033454e-07, 4.960834303346928e-07, -4.486629677558085e-06, 1.3436420886137057e-05, 6.743098492734134e-05, 0.00011653562251012772, 0.00016511595458723605, 0.00024650865816511214, 0.00024541825405322015, 0.00024217608734034002, 0.0001713685633148998, 0.0001627452438697219, 0.00015088130021467805, 0.00023616213002242148, 0.00023337565653491765, 0.00026214326499029994, 0.0002876431099139154, 0.0002983834710903466, 0.00024977349676191807, 0.00019095471361652017, 8.146840991685167e-05, 9.82104756985791e-06, -1.0732484042819124e-05, -8.850917765812483e-06, 5.326403993421991e-07, -4.109660096673906e-07, 9.427279792362242e-07, -4.4262506548875535e-07, -8.600356409260712e-07, 3.8560720838631823e-08, 8.074180755102134e-07, 1.0010553523898125e-05, 2.017416773014702e-05, 3.6239056498743594e-05, 4.647264358936809e-05, 7.09738815203309e-05, 0.00010223958088317886, 0.00010393705451861024, 0.00010170867608394474, 0.00011758732580346987, 0.00013749749632552266, 0.00017121703422162682, 0.0001299550203839317, 0.00012602969945874065, 0.0001155932986875996, 0.00012699826038442552, 0.0001002037461148575, 6.399935227818787e-05, 2.9944883863208815e-05, 4.563163656712277e-06, 8.508894779879483e-07, -2.1050873044714535e-07, 3.15320477284331e-07, -3.51556764144334e-07, 5.08783216446318e-07, -7.729818207735661e-07, 5.507295099960174e-07, 1.7180394706883817e-07, 6.707773536618333e-07, -1.3824869427025988e-07, 2.4992891667352524e-07, 5.346502121028607e-07, 3.3712806271068985e-06, 2.777255303954007e-06, 1.4379381809703773e-06, -2.445962536512525e-06, -5.953877916908823e-06, -5.180101197765907e-06, -4.81811639474472e-08, 7.848144377931021e-06, 3.1767219752509845e-06, 2.1116293282830156e-06, 2.7620003493211698e-06, 7.168488991737831e-06, 4.617350896296557e-06, 3.62319815394585e-06, 1.513211145720561e-06, 2.0845729977736482e-06, 6.706861768179806e-07, 7.987832191247435e-07, 2.7358652232578606e-08, -7.712303613516269e-07, -8.948393315222347e-07]"